{"version": 1, "created": "2026-06-16T17:55:11Z", "source": "wangyuancheng/discord-phishing-scam-clean", "algorithm": "multinomial-naive-bayes-logodds", "alpha": 1.0, "min_doc_freq": 2, "bias": -2.0924167005429695, "threshold": 4.470713056955111, "vocab_size": 1827, "metrics": {"precision": 0.9444444444444444, "recall": 0.4146341463414634, "f1": 0.576271186440678}, "weights": {"change": -1.0376251322126988, "mental": 0.26165785191756186, "give": 0.207590630647287, "he": -1.7896128127955775, "were": -1.0376251322126988, "guaranteed": 1.360270140585671, "any": 0.50006887536256, "desktop": 0.9548050324775073, "games": -0.180174900361477, "product": 0.26165785191756186, "full": -1.432937868856845, "2025": -0.026024220534219822, "matches": 0.26165785191756186, "gae": 0.26165785191756186, "search": 0.26165785191756186, "write": 0.6671229600257256, "doing": 0.03851430060335215, "balance": -0.026024220534219822, "pm": 0.9548050324775073, "us": -0.3743309148024343, "wanted": -0.14380725619060186, "participate": 0.9548050324775073, "dm": 1.447281517575301, "trying": 0.44397940871151675, "member": 0.9548050324775073, "raped": 0.26165785191756186, "mei": -1.4123185816541097, "ace": -0.43148932864238354, "wrong": 0.6671229600257265, "tu": -0.8369544367505473, "kini": 1.360270140585671, "rarely": 0.26165785191756186, "vip": 1.7657352486938356, "mod": 1.360270140585671, "tht": -0.026024220534219822, "several": 0.26165785191756186, "br": -0.026024220534219822, "ti": 0.26165785191756186, "ya": -0.8369544367505473, "dekh": 0.26165785191756186, "quit": 0.6671229600257256, "probably": -0.5856400084696416, "spent": -0.026024220534219822, "sems": 0.26165785191756186, "claim": 1.7657352486938356, "notification": 0.26165785191756186, "pro": -0.43148932864238354, "security": -0.7191714010941643, "latency": -0.026024220534219822, "easy": -0.026024220534219822, "b": 0.26165785191756186, "fill": 0.26165785191756186, "gamble": 0.26165785191756186, "suffering": 0.26165785191756186, "definitely": -0.026024220534219822, "not": -1.6722761060910356, "v18": -0.026024220534219822, "title": 0.26165785191756186, "if": -0.4137897515429829, "multiple": 0.26165785191756186, "trial": 0.9548050324775073, "payment": 1.7657352486938356, "posted": -0.24916777184842864, "1600": 0.26165785191756186, "form": -0.5856400084696416, "ane": -0.026024220534219822, "ultimate": -0.7191714010941643, "friend": 0.47296694558476915, "par": -0.24916777184842864, "mouse": 0.26165785191756186, "plays": 0.26165785191756186, "beauty": 0.26165785191756186, "given": 0.26165785191756186, "needed": 2.0534173211456164, "meaning": 0.26165785191756186, "ss": -0.24916777184842864, "maintenance": -0.24916777184842864, "irl": -0.026024220534219822, "study": -0.43148932864238354, "legend": -0.24916777184842864, "choice": 1.3602701405856719, "kar": -0.43148932864238354, "highly": 2.7465645017055618, "ps5": -0.026024220534219822, "suspension": 2.458882429253781, "thing": -0.5115320363159199, "removes": 0.26165785191756186, "young": 0.26165785191756186, "toxic": 1.360270140585671, "actually": -1.4123185816541097, "back": -0.5856400084696416, "stuff": -0.10606692820775532, "ghost": 0.26165785191756186, "6": -1.4123185816541097, "xhs": -0.026024220534219822, "invited": 0.26165785191756186, "each": 0.26165785191756186, "ends": 2.0534173211456173, "rare": 0.26165785191756186, "70": 0.44397940871151675, "me": 0.07625462858619958, "crypto": 1.9664059441559871, "data": -0.942314952408374, "seconds": -0.24916777184842864, "gg": 0.9548050324775073, "attack": 0.26165785191756186, "la": -0.026024220534219822, "manga": 0.26165785191756186, "malay": 0.26165785191756186, "auto": 0.26165785191756186, "telegram": 2.458882429253781, "both": -0.5856400084696416, "pls": -0.5856400084696416, "father": 0.26165785191756186, "personally": 0.26165785191756186, "gonna": -1.7307723127726442, "gfp": -0.24916777184842864, "i": -1.0235403923309603, "shared": 0.6671229600257256, "choose": 0.26165785191756186, "got": -0.33617914883805877, "attach": -0.026024220534219822, "via": 2.0534173211456164, "btc": 2.7465645017055618, "delete": 0.26165785191756186, "won": 0.26165785191756274, "rar": 2.458882429253781, "vc": 0.6671229600257265, "sandul": -0.24916777184842864, "duty": -0.026024220534219822, "links": 0.44397940871151675, "away": 1.3602701405856719, "subscribers": 0.26165785191756274, "refactors": -0.8369544367505473, "fight": -0.24916777184842864, "unless": -0.026024220534219822, "woman": -0.026024220534219822, "takes": 0.26165785191756186, "tag": -0.5856400084696416, "month": 0.8494445168196814, "people": 0.8494445168196805, "airdrop": 1.6479522130374527, "hour": 2.458882429253781, "though": -0.5856400084696416, "piece": 0.26165785191756186, "hello": 1.2061194607584138, "ppl": -1.4123185816541097, "72": 2.9697080530197715, "single": -0.24916777184842864, "literally": -0.942314952408374, "ain": -0.026024220534219822, "huge": -0.24916777184842864, "is": -0.9169971444240836, "separate": 0.26165785191756186, "skta": 0.26165785191756186, "scam": 0.44397940871151675, "coz": 0.26165785191756186, "than": -0.7191714010941634, "agree": 0.26165785191756186, "window": 0.26165785191756186, "such": -0.026024220534219822, "apni": 0.26165785191756186, "naruto": -0.026024220534219822, "few": 0.15629733625973596, "r": -1.278787189029587, "visit": 0.26165785191756186, "share": 1.3602701405856719, "read": -0.942314952408374, "paypal": 0.9548050324775073, "kallu": 0.26165785191756186, "lineup": 1.360270140585671, "upgrade": 1.360270140585671, "whatsapp": 2.0534173211456164, "dek": 0.26165785191756186, "finished": -0.43148932864238354, "whenever": 1.360270140585671, "image": 0.26165785191756186, "recoil": -0.24916777184842864, "blackie": 0.26165785191756186, "freelance": 0.26165785191756186, "home": 0.26165785191756186, "often": -0.026024220534219822, "permission": -0.026024220534219822, "personality": 0.26165785191756186, "easier": 0.6671229600257256, "suggested": -0.026024220534219822, "roles": -0.942314952408374, "fixes": 0.26165785191756186, "porn": 1.1371265892714622, "what": -0.7797960229105989, "14": -0.026024220534219822, "said": -0.026024220534218934, "act": 0.9548050324775073, "notes": -0.3444779516527534, "all": -0.24916777184842864, "tier": -0.026024220534219822, "pe": -1.3477800605165386, "numerous": 2.458882429253781, "grab": 1.360270140585671, "card": 0.9184373883066321, "hk": -0.026024220534219822, "rankings": 0.26165785191756186, "govt": -0.026024220534219822, "place": -0.5856400084696416, "north": -0.026024220534219822, "trusted": 3.1520296098137264, "staff": 0.44397940871151675, "reset": 0.26165785191756186, "whole": -0.5856400084696416, "editor": 0.26165785191756186, "gotta": 0.26165785191756186, "thinking": -0.43148932864238354, "world": -0.24916777184842864, "work": -0.5856400084696416, "like": -1.868556015135697, "future": -0.7191714010941643, "there": -0.942314952408374, "august": 1.360270140585671, "mode": -0.026024220534219822, "version": -0.24916777184842864, "minimum": 2.458882429253781, "popularity": 0.26165785191756186, "camera": 0.26165785191756186, "found": 0.6671229600257256, "clg": 0.26165785191756186, "zyda": -0.5856400084696416, "married": -0.026024220534219822, "text": 0.26165785191756186, "hoga": -0.5856400084696416, "expected": -1.2046792168758653, "goal": -0.026024220534219822, "top": -1.2046792168758653, "don": 0.48480140323177245, "tank": 0.26165785191756186, "days": -0.24916777184842864, "valo": -0.026024220534219822, "from": 0.8941804106610718, "at": -1.306958065996283, "prize": 0.44397940871151675, "miss": 1.360270140585671, "raffle": 0.9548050324775073, "your": 1.0020579173280524, "requirements": 2.458882429253781, "clean": 0.26165785191756186, "adds": -0.5856400084696416, "player": -1.2046792168758653, "random": 0.26165785191756186, "fun": -1.0376251322126988, "registration": 1.360270140585671, "outside": -0.43148932864238354, "of": -0.4542175797199395, "players": 0.15629733625973596, "sure": -0.942314952408374, "pay": 2.0534173211456164, "him": -1.4729432034705443, "new": 0.4623285473797134, "solve": 0.26165785191756186, "wallet": 3.3061802896409844, "per": 2.0534173211456164, "meneroka": 1.360270140585671, "face": 0.44397940871151675, "select": -0.026024220534219822, "singapore": 0.26165785191756186, "create": 0.44397940871151675, "api": 0.26165785191756186, "4th": 0.26165785191756186, "indians": -0.43148932864238354, "use": -1.0376251322126988, "appeal": 0.9548050324775073, "ive": -0.5856400084696416, "krta": 0.26165785191756186, "showing": -0.026024220534219822, "nitro": 1.2463258812364533, "cost": 0.26165785191756186, "ho": -1.124636509202329, "poor": -0.026024220534219822, "available": 0.1075071720903038, "good": -2.136237420880809, "nitros": 1.360270140585671, "feature": -0.026024220534219822, "12": -0.8369544367505473, "worth": -0.026024220534219822, "to": 0.10606521077340236, "17": -0.026024220534219822, "honor": 1.360270140585671, "option": 0.9548050324775073, "hote": 0.26165785191756186, "episode": 0.26165785191756186, "positive": 2.458882429253781, "social": 1.360270140585671, "laptop": -0.43148932864238354, "god": -0.8369544367505473, "phone": 0.6671229600257265, "sleep": -0.43148932864238354, "whose": 0.26165785191756186, "finish": -0.026024220534219822, "get": -0.36695080750481157, "reminds": -0.026024220534219822, "was": -1.3997397994472491, "anyways": 0.26165785191756186, "features": -0.43148932864238354, "file": -0.14380725619060186, "writing": 0.26165785191756186, "suspicious": 2.458882429253781, "16": -0.026024220534219822, "hosted": 0.26165785191756186, "tournament": -0.6546328799565932, "contact": 1.8710957643516624, "hori": 0.26165785191756186, "photo": 0.26165785191756186, "appears": 0.9548050324775073, "city": -0.026024220534219822, "pure": 0.26165785191756186, "drive": -0.026024220534219822, "results": 1.360270140585671, "simply": 2.458882429253781, "vits": 0.26165785191756186, "log": -1.124636509202329, "know": 0.21513783628266925, "autoenabled": -0.026024220534219822, "server": 0.9390566755093683, "streak": 0.26165785191756186, "met": 0.26165785191756186, "channels": 0.26165785191756186, "teammates": -0.026024220534219822, "december": 0.44397940871151675, "permanent": 1.360270140585671, "ve": 1.1089557123047662, "conditions": 2.458882429253781, "prefer": 0.26165785191756186, "die": -0.5856400084696416, "sever": 0.26165785191756186, "june": -0.5856400084696416, "putting": 0.26165785191756186, "sounds": -0.026024220534219822, "selected": 2.7465645017055618, "clips": -0.43148932864238354, "avoid": 0.9548050324775073, "removing": 0.26165785191756186, "build": -0.24916777184842864, "maybe": -0.8369544367505473, "general": -0.026024220534219822, "night": -0.942314952408374, "deta": -0.026024220534219822, "fcking": -0.24916777184842864, "turned": 0.26165785191756186, "seamlessly": -0.5856400084696416, "an": -0.5856400084696416, "bots": 0.6671229600257265, "want": 0.5870802523521892, "git": 0.26165785191756186, "okay": 0.26165785191756186, "house": -0.24916777184842864, "fees": 1.0725880681338902, "free": 1.4067901562205645, "sakte": 0.26165785191756186, "beta": 0.26165785191756186, "true": -0.43148932864238354, "almost": -0.7191714010941643, "hd": 1.7657352486938356, "cgpa": 0.26165785191756186, "love": 1.0725880681338902, "prob": 0.26165785191756186, "urs": 0.26165785191756186, "tasks": 2.7465645017055618, "asked": 0.26165785191756186, "prizes": 0.26165785191756186, "perks": -0.24916777184842864, "dumb": -0.5856400084696416, "7": 0.3306507234045135, "aisa": -0.026024220534219822, "promotions": 1.360270140585671, "using": -1.124636509202329, "term": -0.24916777184842864, "sex": -0.5856400084696416, "muslims": 0.26165785191756186, "malaysia": 0.44397940871151675, "decided": 0.9548050324775073, "his": -0.5492723642987665, "first": 0.9548050324775073, "personalize": 2.458882429253781, "featuring": 0.26165785191756186, "india": -1.278787189029587, "mean": -1.124636509202329, "ago": -0.8369544367505473, "misery": 0.26165785191756186, "year": 0.4047586955582352, "wired": 0.26165785191756186, "meant": 0.26165785191756186, "feeling": 0.26165785191756186, "trust": -0.24916777184842864, "v10": 0.26165785191756186, "years": -1.2046792168758653, "admin": 2.0534173211456164, "rovin": -0.24916777184842864, "aur": -0.24916777184842864, "heals": 0.26165785191756186, "crack": 0.26165785191756186, "classic": -0.3444779516527534, "fact": -0.7191714010941643, "fast": 0.15629733625973596, "ab": -0.43148932864238354, "waiting": 0.6671229600257256, "trash": -0.24916777184842864, "suppose": 0.26165785191756186, "khabib": 0.26165785191756186, "aaj": 0.26165785191756186, "planning": 0.26165785191756186, "early": -0.43148932864238354, "question": -0.43148932864238354, "speak": -0.026024220534219822, "land": 0.26165785191756186, "silver": -0.24916777184842864, "only": 0.2898287288842578, "till": -0.24916777184842864, "lobbies": 0.26165785191756186, "rhi": 0.26165785191756186, "front": 0.26165785191756186, "iam": 0.26165785191756186, "karke": 0.26165785191756186, "gmail": 0.26165785191756186, "v": -0.24916777184842864, "inactive": 0.26165785191756186, "project": -0.43148932864238354, "section": -0.24916777184842864, "their": -0.5856400084696416, "come": -0.24916777184842864, "views": -0.5856400084696416, "crash": -0.026024220534219822, "value": 1.360270140585671, "deployed": 0.26165785191756186, "mom": -0.7191714010941643, "milk": 0.26165785191756186, "post": -0.7191714010941643, "teyvat": 1.360270140585671, "preview": 0.26165785191756186, "basically": -0.5856400084696416, "equivalent": 0.26165785191756186, "straightforward": 2.458882429253781, "re": 1.1089557123047662, "key": 1.0725880681338902, "grandma": 0.26165785191756186, "tired": 0.9548050324775073, "morning": -0.026024220534219822, "when": -0.6412098596244524, "motherboard": 0.26165785191756186, "background": -0.026024220534219822, "looking": 0.9548050324775073, "fire": 0.6671229600257256, "once": -0.026024220534218934, "bits": 0.26165785191756186, "boasts": 2.458882429253781, "v8": 0.26165785191756186, "21": 0.26165785191756186, "asking": 0.1075071720903038, "existence": 0.26165785191756186, "downtime": -1.2046792168758653, "cheap": 1.360270140585671, "screen": 1.0725880681338902, "play": -1.4923612893276452, "kicked": -0.24916777184842864, "kuch": -0.7191714010941643, "lmao": -0.026024220534219822, "clan": -0.891021658020823, "m4": -0.24916777184842864, "mid": -0.43148932864238354, "join": 0.8747623248039709, "parents": -0.026024220534219822, "try": 0.3306507234045135, "race": 0.26165785191756186, "duo": -0.026024220534219822, "turn": -0.026024220534219822, "where": 0.5718127802214017, "chess": -0.026024220534219822, "fuck": 0.9548050324775073, "argument": 0.26165785191756186, "watching": 0.26165785191756186, "suck": -0.026024220534219822, "country": -0.026024220534219822, "cus": -0.24916777184842864, "krna": 0.26165785191756186, "eyes": 0.44397940871151675, "min": -0.24916777184842864, "run": 0.26165785191756186, "lot": -0.5856400084696416, "lakh": -0.026024220534219822, "gb": -0.026024220534219822, "didnt": -1.0376251322126988, "2022": 0.26165785191756186, "login": 1.0725880681338902, "loyalty": 2.458882429253781, "came": -0.24916777184842864, "150": 0.26165785191756186, "changes": -0.24916777184842864, "aa": 0.26165785191756186, "today": -0.3444779516527534, "credentials": -0.7191714010941643, "50": 1.60143219740256, "hi": -0.24916777184842864, "hell": -0.43148932864238354, "understand": 0.1075071720903038, "related": -0.026024220534219822, "dipati": 1.360270140585671, "3rd": -0.026024220534219822, "files": 0.26165785191756186, "cannot": 0.26165785191756186, "wan": 0.26165785191756186, "words": -0.24916777184842864, "boomer": 0.26165785191756186, "explanation": -0.026024220534219822, "start": 0.7724834756835532, "bapak": 1.360270140585671, "bite": -0.026024220534219822, "rp": -0.24916777184842864, "reason": -0.5856400084696416, "effects": 0.26165785191756186, "banner": 0.26165785191756186, "registering": 1.360270140585671, "bait": 1.7657352486938356, "tonight": -0.5856400084696416, "as": -2.4898774611243866, "instagram": 0.26165785191756186, "tap": 1.360270140585671, "somebody": -0.026024220534219822, "power": -0.026024220534219822, "bhai": -0.5856400084696416, "os": 0.26165785191756186, "metro": -0.24916777184842864, "sare": 0.26165785191756186, "click": 1.3602701405856719, "show": 0.26165785191756186, "vid": -0.026024220534219822, "shooting": 0.26165785191756186, "dog": -0.026024220534219822, "shows": 0.26165785191756186, "fluids": 0.26165785191756186, "threshold": 0.26165785191756186, "soon": -0.14380725619060186, "60fps": 0.26165785191756186, "rank": -1.4729432034705443, "message": 0.8902665113399362, "install": -0.026024220534219822, "great": -0.24916777184842864, "glad": 2.458882429253781, "put": 0.44397940871151675, "test": 1.8710957643516624, "pics": -0.7191714010941643, "y": -0.43148932864238354, "global": -0.5856400084696416, "jaise": 0.26165785191756186, "anime": -0.026024220534219822, "number": 0.6671229600257265, "pc": -1.124636509202329, "dedicated": -0.026024220534219822, "area": 0.26165785191756186, "atheist": 0.26165785191756186, "four": 0.26165785191756186, "partner": 0.26165785191756186, "depends": -0.43148932864238354, "remember": -0.5856400084696416, "held": 1.360270140585671, "rn": 0.1075071720903038, "comment": -0.24916777184842864, "revealed": -0.026024220534219822, "1v1": -1.4123185816541097, "eye": -0.026024220534219822, "themselves": 0.26165785191756186, "heart": 1.360270140585671, "accept": 0.44397940871151675, "small": -0.24916777184842864, "problem": -0.43148932864238354, "fee": -0.24916777184842864, "crying": 0.26165785191756186, "chatting": 1.360270140585671, "changing": -0.24916777184842864, "money": -1.124636509202329, "worst": 0.26165785191756186, "ara": 0.26165785191756186, "strategy": 1.7657352486938356, "scene": 0.26165785191756186, "fan": 0.9548050324775073, "becoz": -0.24916777184842864, "skills": 0.26165785191756186, "ranked": 0.26165785191756186, "net": 0.26165785191756186, "reported": 2.7465645017055618, "ne": 0.26165785191756186, "pages": 0.26165785191756186, "hours": 1.812255264328729, "oh": -0.7191714010941643, "big": 0.060987156455411196, "aise": -0.026024220534219822, "hosting": 1.360270140585671, "shi": -0.026024220534219822, "damage": -0.026024220534219822, "matter": 0.26165785191756186, "add": 1.242487104929289, "real": 0.348669228907192, "link": 0.9548050324775073, "investment": 2.9697080530197715, "subs": -0.026024220534219822, "projects": -0.24916777184842864, "unbanned": 0.26165785191756186, "mari": 1.360270140585671, "driver": 0.26165785191756186, "you": 0.14017795437985292, "weekend": 0.26165785191756186, "by": -0.281957594671419, "iss": 0.26165785191756186, "boost": 0.7724834756835532, "tujhe": 0.26165785191756186, "video": -0.43148932864238265, "minor": -0.026024220534219822, "moments": 0.26165785191756186, "sell": 0.15629733625973596, "america": -0.026024220534219822, "acting": 0.26165785191756186, "send": 0.8137264342176023, "joint": -0.026024220534219822, "dan": 1.360270140585671, "mins": -0.026024220534219822, "always": -0.7191714010941643, "might": -0.43148932864238354, "carry": 0.26165785191756186, "hr": 0.26165785191756186, "least": -0.43148932864238354, "ssn": -0.5856400084696416, "coaching": 0.26165785191756186, "reddit": -0.026024220534219822, "lag": -0.026024220534219822, "below": 0.8006543526502492, "purchase": -0.43148932864238354, "saya": 1.360270140585671, "jta": 0.26165785191756186, "erm": 1.360270140585671, "peach": 2.458882429253781, "customs": 1.360270140585671, "bored": 0.26165785191756186, "before": 0.6671229600257265, "bc": -0.8369544367505473, "satisfied": 1.7657352486938356, "fixed": 0.9548050324775073, "yar": -0.026024220534219822, "feminine": 0.26165785191756186, "kids": -0.026024220534219822, "2nd": -0.24916777184842864, "style": -0.026024220534219822, "grow": 2.458882429253781, "hack": 0.26165785191756186, "eheh": 1.360270140585671, "having": 0.6671229600257265, "2": -1.1452557964050643, "244": 2.458882429253781, "final": -0.43148932864238354, "cant": -1.4729432034705443, "stock": 1.360270140585671, "word": -0.026024220534219822, "logo": -0.026024220534219822, "bros": -0.026024220534219822, "welcome": 1.360270140585671, "main": 0.1075071720903038, "instant": 2.0534173211456164, "migrates": -0.5856400084696416, "improves": -0.026024220534219822, "epic": 1.7657352486938356, "movie": -0.24916777184842864, "wh0re": 0.26165785191756186, "buying": -0.026024220534219822, "<discord_invite>": 1.4854332835396775, "quickly": 2.0534173211456164, "healer": -0.026024220534219822, "written": -0.026024220534219822, "dms": -0.5856400084696416, "sometimes": -0.5856400084696416, "sent": 0.8006543526502492, "should": 0.048083751619502735, "subreddit": -0.026024220534219822, "lucky": -0.026024220534218934, "ig": -0.026024220534219822, "middle": -0.026024220534219822, "didn": -0.942314952408374, "advantage": 2.458882429253781, "uc": 0.3794408875739457, "ironman": 0.26165785191756186, "teen": 2.0534173211456164, "hey": 1.072588068133891, "ask": 1.360270140585671, "tags": 1.6479522130374527, "doc": -0.24916777184842864, "around": 0.44397940871151675, "bete": 0.26165785191756186, "amount": -0.43148932864238354, "binary": 1.360270140585671, "owner": 0.26165785191756186, "ingame": 0.26165785191756186, "has": -0.7191714010941634, "mobile": 0.18161514424402547, "<user>": -2.277316019140714, "dad": 0.26165785191756186, "digits": -0.026024220534219822, "scams": 1.360270140585671, "000": 0.6671229600257265, "school": -0.026024220534219822, "saying": -0.026024220534219822, "better": -1.5301016173104927, "rights": 2.458882429253781, "wtf": -0.43148932864238354, "havent": -0.026024220534219822, "those": -1.124636509202329, "network": 0.26165785191756186, "set": -0.24916777184842864, "reward": 1.6479522130374527, "day": 0.1075071720903038, "hate": -0.7191714010941643, "them": -1.7307723127726442, "1": -0.24916777184842864, "alive": 0.26165785191756186, "talking": -1.0376251322126988, "brother": 0.26165785191756186, "4": -1.9719343695895324, "com": 1.8710957643516624, "yk": -0.24916777184842864, "feet": -0.24916777184842864, "insta": -0.026024220534219822, "simple": 1.3602701405856719, "tha": -1.0376251322126988, "half": 0.26165785191756186, "copy": 0.9548050324775073, "no": -0.20834577732817294, "confirm": 1.3602701405856719, "date": 0.26165785191756186, "light": -0.24916777184842864, "profits": 2.9697080530197715, "deprecated": 0.26165785191756186, "conquer": -0.026024220534219822, "live": 0.060987156455411196, "scammed": 0.44397940871151675, "<url>": 0.8239654315186966, "received": 2.7465645017055618, "gives": 1.3602701405856719, "step": 0.44397940871151675, "padta": 0.26165785191756186, "dogs": 0.26165785191756186, "working": -0.026024220534219822, "replay": 0.26165785191756186, "enhance": 2.458882429253781, "ban": -0.5856400084696416, "normal": -0.026024220534219822, "against": -0.43148932864238354, "helper": 0.26165785191756186, "achieved": 1.360270140585671, "backend": -0.8369544367505473, "rest": -0.942314952408374, "roblox": 0.26165785191756186, "down": -0.24916777184842864, "password": 0.44397940871151675, "consistent": 0.26165785191756186, "yang": 0.26165785191756186, "50k": 2.458882429253781, "qr": 2.1712003568019993, "bas": 0.26165785191756186, "device": -0.942314952408374, "non": -0.43148932864238354, "ki": -1.2046792168758653, "exciting": -0.026024220534219822, "spend": 0.26165785191756186, "unable": 1.360270140585671, "mvp": 0.26165785191756186, "sharpshooter": 0.26165785191756186, "di": 1.7657352486938356, "be": -0.5267995084467083, "vs": -0.7191714010941643, "thank": -0.026024220534218934, "learning": -0.026024220534219822, "thought": -0.8369544367505473, "offerings": 2.458882429253781, "health": 0.26165785191756186, "servers": 0.9548050324775073, "american": -0.026024220534219822, "exists": 0.26165785191756186, "mainland": 0.26165785191756186, "ye": -1.0376251322126988, "regardless": 0.26165785191756186, "lowkey": 0.26165785191756186, "open": -0.43148932864238354, "hui": -0.026024220534219822, "telling": -0.24916777184842864, "extremely": -0.026024220534219822, "muted": -0.43148932864238354, "south": 0.26165785191756186, "gifted": 0.9548050324775073, "apparently": -0.24916777184842864, "sale": 0.44397940871151675, "faster": 2.0534173211456164, "map": -0.43148932864238354, "week": 0.3794408875739457, "5": -0.6207313282809119, "space": 0.26165785191756186, "ladki": 0.26165785191756186, "giveaways": 0.1075071720903038, "we": -0.11303559752384817, "sirf": 0.26165785191756186, "120": -0.026024220534219822, "rewards": 1.360270140585671, "calling": 0.26165785191756186, "case": -0.026024220534219822, "tron": -0.026024220534219822, "receive": 2.1712003568019993, "alot": -0.026024220534219822, "represent": 0.26165785191756186, "keyboard": 0.26165785191756186, "p": 0.26165785191756186, "out": 0.6183327958562943, "emojis": 0.6671229600257265, "reviews": 2.458882429253781, "perform": 2.458882429253781, "friends": 0.5493399243693435, "gifts": 2.0534173211456164, "hot": 2.0534173211456173, "5532600515": 1.360270140585671, "iq": -0.026024220534219822, "offers": 2.9697080530197715, "logout": 0.26165785191756186, "pretty": -0.8369544367505473, "losing": -0.026024220534219822, "spam": -0.026024220534219822, "sabh": -0.24916777184842864, "voice": -0.026024220534218934, "ts": 0.6671229600257256, "happened": 1.3602701405856719, "on": -0.2571359414976051, "active": 0.8212736398529845, "vpn": 0.26165785191756186, "holes": -0.7191714010941643, "im": -1.5841688385807684, "body": 1.360270140585671, "update": -1.124636509202328, "done": 0.8494445168196814, "details": -2.223248797870438, "am": -0.10606692820775532, "how": 0.2433087132493652, "videos": -0.8369544367505473, "picture": -0.026024220534219822, "mee6": -0.24916777184842864, "v11": 0.26165785191756186, "last": -1.5301016173104927, "babe": 0.26165785191756186, "scrim": 0.5129722801984684, "annoying": 0.26165785191756186, "rip": 0.26165785191756186, "season": -1.4729432034705443, "learn": -0.026024220534219822, "specific": 0.26165785191756186, "took": -0.24916777184842864, "randomly": 0.26165785191756186, "toh": -1.8978263974358107, "about": -1.4123185816541097, "t": -0.40071766997562985, "verify": 2.0534173211456164, "million": 1.360270140585671, "18": 2.0534173211456164, "rather": -0.026024220534219822, "pic": -0.43148932864238354, "download": 0.3794408875739457, "hue": 0.26165785191756186, "song": 0.26165785191756186, "tho": -1.2046792168758653, "together": -0.24916777184842864, "other": -0.6321600241045342, "personal": 0.6671229600257256, "afternoon": 0.26165785191756186, "gif": 0.26165785191756186, "more": 0.15629733625973508, "addicted": 0.26165785191756186, "30x": 0.26165785191756186, "kill": -1.0376251322126988, "gun": -0.24916777184842864, "v19": -0.026024220534219822, "kpop": 0.26165785191756186, "accidentally": 1.3602701405856719, "pubg": 0.03851430060335215, "se": -1.4123185816541097, "tera": 0.26165785191756186, "earning": 0.5129722801984684, "bola": -0.026024220534219822, "because": -0.891021658020823, "fucked": 0.26165785191756186, "a": -0.6172770934128238, "community": 1.4938015332101946, "ra": 0.26165785191756186, "suggest": 0.26165785191756186, "guild": 1.7657352486938356, "right": -1.0376251322126988, "automatic": 0.26165785191756186, "questions": 1.360270140585671, "screenshot": -0.026024220534219822, "moderate": -0.026024220534219822, "grave": 0.26165785191756186, "its": -1.4729432034705443, "ke": -1.2046792168758653, "fault": -0.026024220534219822, "tool": 0.26165785191756186, "pushing": -0.026024220534219822, "sen": 0.26165785191756186, "c": -0.026024220534219822, "jo": 0.26165785191756186, "character": -0.026024220534219822, "announcements": 0.6671229600257256, "jn": 0.26165785191756186, "information": 0.6671229600257256, "else": 0.9548050324775073, "kinda": -0.026024220534219822, "75": -0.026024220534219822, "anybody": 0.9548050324775073, "ek": -0.24916777184842864, "de": -0.24916777184842864, "experience": -0.026024220534219822, "patches": -0.8369544367505473, "been": 0.4952727030990678, "rocket": 1.360270140585671, "many": -0.8369544367505473, "chats": 1.6479522130374527, "deposit": 2.458882429253781, "settings": 0.9548050324775073, "royal": -0.026024220534219822, "funny": -0.24916777184842864, "100": 1.7657352486938356, "times": -0.43148932864238354, "fly": -0.026024220534219822, "giveaway": 0.7724834756835532, "usa": -0.026024220534219822, "system": 0.26165785191756186, "already": -0.3137062929859997, "format": 2.458882429253781, "90": 0.26165785191756186, "higher": -0.43148932864238354, "massage": 2.7465645017055618, "growth": 2.0534173211456164, "college": -0.026024220534219822, "nhi": -0.026024220534219822, "points": -0.5856400084696416, "fir": -1.0376251322126988, "gift": 3.8026171759548753, "app": 0.348669228907192, "recently": -0.43148932864238354, "solo": -0.8369544367505473, "effective": 1.360270140585671, "skill": -0.026024220534219822, "detected": 2.458882429253781, "cs": 1.360270140585671, "esports": -0.24916777184842864, "part": 0.44397940871151675, "average": -0.24916777184842864, "next": 0.3794408875739457, "watch": 0.060987156455411196, "wle": -0.026024220534219822, "thanks": 0.9548050324775073, "destroyed": 0.26165785191756186, "problems": -0.026024220534219822, "looked": 0.26165785191756186, "maza": 0.26165785191756186, "lead": 1.360270140585671, "dick": 0.26165785191756186, "monitor": -0.43148932864238354, "accounts": 1.8710957643516624, "arcane": -0.026024220534219822, "driving": -0.026024220534219822, "wont": -0.24916777184842864, "black": -0.026024220534219822, "recap": -0.026024220534219822, "invite": 1.0725880681338902, "destroy": 0.26165785191756186, "why": -2.223248797870438, "university": 0.26165785191756186, "may": 1.7657352486938356, "hav": 0.26165785191756186, "yt": -0.24916777184842864, "launcher": 1.360270140585671, "gay": -0.7191714010941643, "wechat": -0.24916777184842864, "entire": 0.26165785191756186, "bi": -0.24916777184842864, "allowed": 0.26165785191756186, "upfront": 1.360270140585671, "alonso": 0.26165785191756186, "sa": 0.26165785191756186, "kr": -0.43148932864238354, "usdt": 1.360270140585671, "yea": -0.24916777184842864, "mint": 2.458882429253781, "girls": 1.5834136918998807, "kabi": 0.26165785191756186, "blue": -0.942314952408374, "become": -0.24916777184842864, "yes": -0.5856400084696416, "subscription": 2.458882429253781, "h": -2.0737170638994744, "used": -1.5841688385807684, "equip": 1.360270140585671, "conqueror": -0.24916777184842864, "8": -0.8369544367505473, "enter": 1.360270140585671, "bread": 0.26165785191756186, "paper": -0.24916777184842864, "js": -0.5856400084696416, "plz": 0.348669228907192, "beat": -0.24916777184842864, "group": 0.7724834756835532, "sem": -0.24916777184842864, "modules": -0.7191714010941643, "financial": 1.7657352486938356, "ranking": 0.26165785191756186, "sndns": 0.26165785191756186, "mind": -0.5856400084696416, "then": -1.302317686439781, "had": -1.7307723127726442, "1974": 2.458882429253781, "wins": 0.26165785191756186, "bsdk": 0.26165785191756186, "snowflake": 2.9697080530197715, "exchange": 0.26165785191756186, "channel": -0.10606692820775532, "tiktok": 1.7657352486938356, "kisi": 0.26165785191756186, "connect": 2.0534173211456164, "vaise": -0.026024220534219822, "dunia": 1.360270140585671, "royale": 0.6671229600257256, "directly": -0.24916777184842864, "close": -0.43148932864238354, "vegetarian": 0.26165785191756186, "trouble": 0.26165785191756186, "level": -1.0376251322126988, "testing": 1.360270140585671, "kiss": -0.026024220534219822, "over": 0.7541343370153566, "these": -0.8369544367505473, "car": -0.7191714010941643, "2023": -0.026024220534219822, "japan": 0.26165785191756186, "kills": -0.3444779516527534, "tell": 0.6671229600257265, "either": -0.026024220534219822, "access": 0.5981300885387748, "bhi": -1.3477800605165386, "exclusive": 1.7657352486938356, "calls": 0.44397940871151675, "error": -0.43148932864238354, "rha": -0.026024220534219822, "unipin": 1.360270140585671, "apple": -0.026024220534219822, "profit": 1.7657352486938356, "diff": -0.24916777184842864, "island": -0.026024220534219822, "added": 2.0534173211456173, "uni": 0.26165785191756186, "find": 0.1075071720903038, "finding": 0.26165785191756186, "n": -0.5856400084696416, "sorry": 1.7657352486938356, "played": -0.43148932864238354, "anyone": -0.47231132316263835, "two": -0.24916777184842864, "notifications": -0.026024220534219822, "changed": -0.5856400084696416, "members": 0.4047586955582352, "isnt": 0.26165785191756186, "except": -0.43148932864238354, "flag": -0.026024220534219822, "food": -0.24916777184842864, "interventions": 2.458882429253781, "sleeping": 0.26165785191756186, "gyro": -0.026024220534219822, "flame": 0.26165785191756186, "temporary": 0.26165785191756186, "kud": -0.026024220534219822, "less": -0.5856400084696416, "maa": 0.26165785191756186, "upload": -0.24916777184842864, "under": 0.9548050324775073, "bot": 0.26165785191756186, "aimbot": 0.26165785191756186, "gamer": 0.26165785191756186, "order": -0.43148932864238354, "gtfo": 0.26165785191756186, "short": 0.26165785191756186, "really": 0.26165785191756186, "bitcoin": 1.7657352486938356, "wow": 0.44397940871151675, "ur": -1.5841688385807684, "meeting": -0.026024220534219822, "worry": 1.360270140585671, "withdraw": 2.458882429253781, "keep": -1.0376251322126988, "ate": 0.26165785191756186, "long": -0.5115320363159199, "review": 0.9548050324775073, "essay": -0.026024220534219822, "hes": -1.124636509202329, "idea": -0.24916777184842864, "ko": -0.942314952408374, "reply": 1.0725880681338902, "enough": -1.0376251322126988, "topup": 1.360270140585671, "mini": -0.7191714010941643, "solos": 0.26165785191756186, "assignments": 0.26165785191756186, "steps": -0.026024220534219822, "others": -0.026024220534219822, "usse": 0.26165785191756186, "does": -1.2046792168758653, "reimburse": 2.458882429253781, "impact": 1.360270140585671, "pack": 1.360270140585671, "match": -1.4123185816541097, "qq": -0.24916777184842864, "tagging": 0.26165785191756186, "300": 1.360270140585671, "profile": 2.276560872459826, "please": 0.1075071720903038, "interesting": 0.9548050324775073, "since": -0.7191714010941643, "v2": -0.026024220534219822, "going": -0.8369544367505473, "25": 0.9548050324775073, "move": 0.26165785191756186, "react": 0.9548050324775073, "nothing": -1.0376251322126988, "hacking": -0.43148932864238354, "killed": 0.26165785191756186, "earn": 2.9697080530197715, "another": -0.7191714010941643, "knew": 0.26165785191756186, "certain": 0.26165785191756186, "our": 0.9548050324775081, "fucking": -0.43148932864238354, "clone": 0.26165785191756186, "basis": 0.26165785191756186, "fourth": 0.26165785191756186, "tried": 0.26165785191756186, "the": -0.4364521179845129, "10": 1.206119460758413, "kya": -0.8369544367505473, "pedo": -0.026024220534219822, "username": 0.26165785191756186, "barely": 0.26165785191756186, "need": 0.2075906306472861, "stability": -0.026024220534219822, "crown": 0.26165785191756186, "gameplay": -0.24916777184842864, "jab": 0.26165785191756186, "win": 0.9548050324775073, "same": -0.9911051165778062, "gemstones": -0.026024220534219822, "military": 0.26165785191756186, "docs": 0.26165785191756186, "white": 0.44397940871151675, "v3": 1.360270140585671, "currently": -0.43148932864238354, "call": -0.7191714010941643, "being": 0.5129722801984684, "nah": -0.43148932864238354, "later": -0.43148932864238354, "20": 1.0035951966469394, "hold": 0.26165785191756186, "rate": -0.026024220534219822, "ever": -0.942314952408374, "swear": -0.24916777184842864, "experienced": 0.26165785191756186, "did": -1.8177836897622734, "human": 2.458882429253781, "posting": 1.360270140585671, "u": -2.4898774611243866, "provide": 0.6671229600257265, "x": 0.26165785191756186, "wild": 1.7657352486938356, "user": 1.3602701405856719, "youtube": 0.44397940871151675, "now": 0.09657810155811397, "life": -0.43148932864238354, "subscribe": 0.26165785191756186, "helpers": 0.26165785191756186, "very": -0.3444779516527534, "linked": -0.026024220534219822, "documentation": -0.5856400084696416, "within": 2.613033109081039, "every": -0.891021658020823, "ones": -0.026024220534219822, "slides": 0.26165785191756186, "happening": -0.24916777184842864, "teacher": -0.026024220534219822, "regarding": 0.26165785191756186, "events": -0.026024220534218934, "squad": -0.026024220534219822, "her": -1.5841688385807684, "support": -0.026024220534219822, "also": -0.9911051165778062, "cheaper": 0.26165785191756186, "feel": -1.0376251322126988, "bought": -0.24916777184842864, "verification": 1.8710957643516624, "circle": 0.26165785191756186, "introduces": 0.26165785191756186, "language": -0.026024220534219822, "missed": -0.24916777184842864, "bande": 0.26165785191756186, "star": 0.26165785191756186, "investing": 0.26165785191756186, "bruh": -0.5856400084696416, "plat": -0.026024220534219822, "control": -0.24916777184842864, "license": 0.26165785191756186, "pistol": 0.26165785191756186, "service": 1.8710957643516624, "activation": 2.458882429253781, "wish": -0.026024220534219822, "krte": -0.026024220534219822, "gta": 0.26165785191756186, "exe": 1.7657352486938356, "summary": -0.5856400084696416, "exploits": 1.360270140585671, "hua": -0.026024220534219822, "shotgun": 0.26165785191756186, "decent": 0.26165785191756186, "looks": -0.7191714010941643, "lots": -0.026024220534219822, "sensitivity": 0.26165785191756186, "confused": 0.26165785191756186, "believe": 0.26165785191756186, "tune": 0.26165785191756186, "idk": -0.026024220534218934, "guys": -1.1654585037225837, "guns": -0.43148932864238354, "abhi": -0.026024220534219822, "conq": -0.43148932864238354, "delays": 1.7657352486938356, "budget": 0.26165785191756186, "9": -0.5856400084696416, "skins": 2.9697080530197715, "look": -0.7191714010941643, "boosts": 4.579145965453872, "crontol": 0.26165785191756186, "push": -1.2046792168758653, "class": 0.26165785191756186, "family": 1.360270140585671, "but": -0.9692224053282983, "ai": 0.1075071720903038, "56": 0.26165785191756186, "accepted": 0.9548050324775073, "until": 1.0725880681338902, "think": -1.5114094842983405, "rush": -0.026024220534219822, "lost": -0.8369544367505473, "pehle": 0.26165785191756186, "wanna": -0.3975877769667022, "doesnt": -0.24916777184842864, "3": 0.7115747225965601, "holding": 1.360270140585671, "teachers": 0.26165785191756186, "feedback": -0.24916777184842864, "pta": -0.026024220534219822, "following": 0.26165785191756186, "current": -0.026024220534219822, "gain": 0.26165785191756186, "500": 2.276560872459826, "quick": 1.7657352486938356, "stats": -0.026024220534219822, "recovery": 1.360270140585671, "genshin": 1.360270140585671, "accs": 0.26165785191756186, "indian": -0.8369544367505473, "deal": 1.7657352486938356, "plastic": 0.26165785191756186, "which": 0.26165785191756186, "eth": 3.1520296098137264, "mic": -0.8369544367505473, "can": -0.8220287865338713, "tbh": 0.26165785191756186, "anymore": -0.43148932864238354, "through": -0.026024220534218934, "2fa": 0.26165785191756186, "sucks": -0.026024220534219822, "walk": 0.26165785191756186, "they": -1.5484507559786893, "here": 1.050115212281833, "market": 2.0534173211456173, "tk": 0.26165785191756186, "heaven": 0.26165785191756186, "happy": -0.5856400084696416, "low": -0.24916777184842864, "coming": -0.026024220534219822, "someone": -0.47231132316263835, "characters": 0.26165785191756186, "sfc": -1.124636509202329, "spotify": -0.026024220534219822, "e": 0.1075071720903038, "fix": 0.26165785191756186, "lewis": 0.26165785191756186, "make": -1.8586056842825291, "lemons": 0.26165785191756186, "private": 0.9548050324775073, "way": 0.8494445168196814, "aiming": 0.26165785191756186, "are": -0.1978744774608776, "smj": 0.26165785191756186, "design": 0.26165785191756186, "damn": -0.8369544367505473, "off": -0.43148932864238354, "joined": -0.24916777184842864, "see": -0.388929714223587, "schedule": -0.7191714010941643, "rust": 2.7465645017055618, "gets": 0.44397940871151675, "content": 1.3602701405856719, "monthly": 0.26165785191756186, "for": -0.03617659199823642, "dekio": 0.26165785191756186, "37": 0.26165785191756186, "kid": -0.43148932864238354, "inside": 0.26165785191756186, "racist": 0.26165785191756186, "getting": -1.278787189029587, "hota": -0.24916777184842864, "team": -0.47231132316263835, "11": -0.026024220534219822, "hard": -0.5115320363159199, "managed": 0.26165785191756186, "went": -0.8369544367505473, "kepala": 1.360270140585671, "living": 0.26165785191756186, "longer": 0.9548050324775073, "smth": -0.43148932864238354, "nice": -0.24916777184842864, "v9": 0.26165785191756186, "ok": -0.026024220534219822, "tmr": 0.26165785191756186, "submit": 0.26165785191756186, "drop": 0.3794408875739457, "meme": 0.9548050324775073, "proof": 0.44397940871151675, "far": -0.43148932864238354, "opened": 0.26165785191756186, "lobby": -0.24916777184842864, "ka": -1.124636509202329, "just": -0.10124764177180623, "cuz": -1.6842522971377516, "context": 0.26165785191756186, "english": -0.026024220534219822, "says": -0.026024220534219822, "different": 1.7657352486938356, "rich": 0.26165785191756186, "updated": -0.24916777184842864, "ha": 0.26165785191756186, "transfer": -0.43148932864238354, "check": 1.0725880681338902, "one": -1.278787189029587, "promised": 0.26165785191756186, "users": 1.023797903964459, "repo": -0.026024220534219822, "fake": -0.026024220534219822, "selling": 0.26165785191756186, "listen": 0.26165785191756186, "btw": -0.14380725619060186, "website": -0.8369544367505473, "dame1": 2.7465645017055618, "protein": 0.26165785191756186, "boht": 0.26165785191756186, "discord": 1.6874830517940884, "it": -0.3762266499673341, "bot5": -0.026024220534219822, "30": 0.3794408875739457, "easily": 0.6671229600257265, "exam": -0.24916777184842864, "congrats": 1.3602701405856719, "do": -1.4247411016526668, "hojta": 0.26165785191756186, "game": 0.32417820889889626, "blog": 0.26165785191756186, "yeah": -1.278787189029587, "mere": 0.26165785191756186, "practicing": 0.26165785191756186, "male": 0.26165785191756186, "staffs": 1.360270140585671, "2500": -0.026024220534219822, "cause": -1.0376251322126988, "local": 0.26165785191756186, "release": -1.0376251322126988, "ready": 0.26165785191756186, "dev": -0.026024220534219822, "circuit": 0.26165785191756186, "started": 0.6671229600257265, "jaega": 0.26165785191756186, "sahi": 0.26165785191756186, "seen": -0.8369544367505473, "special": -0.5856400084696416, "rice": 0.26165785191756186, "report": 0.1075071720903038, "anything": -1.2046792168758653, "crazy": -0.026024220534219822, "dont": -0.9751047752313644, "student": 0.26165785191756186, "three": 0.26165785191756186, "chance": -1.124636509202329, "wasn": 0.26165785191756186, "shown": 1.360270140585671, "viet": -0.026024220534219822, "winner": 0.060987156455411196, "lemme": 0.26165785191756186, "july": 0.26165785191756186, "while": -1.124636509202329, "thats": -1.2046792168758653, "stick": 0.26165785191756186, "na": -0.7191714010941643, "green": -0.24916777184842864, "15": -0.8369544367505473, "makes": -0.43148932864238354, "similar": 0.26165785191756186, "egirls": 2.0534173211456164, "helps": 0.9548050324775073, "expires": 2.7465645017055618, "exams": 0.26165785191756186, "person": -1.6842522971377516, "yourself": 1.3602701405856719, "atleast": -0.24916777184842864, "with": -0.5439673120690731, "aj": 0.26165785191756186, "w": -0.7191714010941643, "list": -0.24916777184842864, "automatically": 1.7657352486938356, "head": 1.0725880681338902, "name": -0.2883884850017102, "terminator": 0.26165785191756186, "most": -1.5301016173104927, "left": 1.023797903964459, "provided": 2.458882429253781, "muting": -0.24916777184842864, "have": -0.7964630753958106, "repeated": 0.26165785191756186, "site": -0.24916777184842864, "late": 0.26165785191756186, "result": 1.360270140585671, "ll": 0.310448016086994, "messages": 0.26165785191756186, "hezigege": -0.026024220534219822, "own": -0.6546328799565932, "quality": -0.5856400084696416, "wo": 0.26165785191756186, "mark": 1.360270140585671, "china": -0.026024220534219822, "bengali": 0.26165785191756186, "increase": 0.26165785191756186, "guy": -1.278787189029587, "sponsored": 0.26165785191756186, "double": 0.6671229600257256, "this": -0.16156971253044272, "between": -0.026024220534219822, "additional": 1.3602701405856719, "lets": 0.26165785191756186, "hipfire": 0.26165785191756186, "buy": -1.4729432034705443, "will": 0.2044994380776135, "cat": 0.26165785191756186, "application": 2.458882429253781, "phir": 0.26165785191756186, "pattern": 0.26165785191756186, "steamcommunity": 3.662855233579717, "changelog": -0.7191714010941643, "something": 0.19711933077999078, "max": -0.026024220534219822, "external": 1.3602701405856719, "claimed": 0.26165785191756186, "returns": 2.458882429253781, "s": 0.0038287426154619553, "ability": -0.8369544367505473, "patient": -0.026024220534219822, "secure": -0.43148932864238354, "sht": 0.26165785191756186, "well": -0.3137062929859997, "s12k": -0.5856400084696416, "ie": 0.26165785191756186, "friday": 0.26165785191756186, "death": 0.26165785191756186, "marvel": -0.026024220534219822, "risk": -0.24916777184842864, "usage": 0.26165785191756186, "hating": 0.26165785191756186, "playing": -0.942314952408374, "too": -1.0820768947835324, "shibe": -1.8978263974358107, "never": -1.5301016173104927, "0": 0.44397940871151675, "after": -0.026024220534218934, "android": -0.026024220534219822, "making": -0.5856400084696416, "evidence": 0.26165785191756186, "haven": -0.026024220534219822, "lkin": 0.26165785191756186, "best": -0.3444779516527534, "mentions": 0.26165785191756186, "woh": -0.026024220534219822, "edition": -1.124636509202329, "works": 2.613033109081039, "sponsor": -0.026024220534219822, "old": -1.124636509202329, "banned": -0.7191714010941643, "203": 2.458882429253781, "request": 0.9548050324775073, "studies": 0.26165785191756186, "realized": 0.26165785191756186, "regret": 0.26165785191756186, "code": 0.4220005019927413, "mr": 0.26165785191756186, "interested": 3.1520296098137255, "yet": -0.24916777184842864, "legacy": -0.942314952408374, "signing": -0.026024220534219822, "stay": -0.43148932864238354, "lazy": -0.026024220534219822, "camp": 0.26165785191756186, "bad": -0.7191714010941643, "mission": 0.26165785191756186, "take": 1.4656306562434986, "sad": -0.026024220534219822, "mai": -0.7191714010941643, "fking": 0.26165785191756186, "seems": 0.9548050324775073, "d": 1.0725880681338902, "noob": -0.24916777184842864, "dead": 0.26165785191756186, "id": 0.18161514424402547, "official": 0.26165785191756186, "kd": -1.2046792168758653, "flagged": 2.458882429253781, "includes": -0.7191714010941643, "made": 1.0418164094671374, "account": 0.7034906041966016, "spawn": 0.26165785191756186, "100k": 1.6479522130374527, "wait": 0.6671229600257265, "77": 0.26165785191756186, "individually": 1.360270140585671, "pig": 0.26165785191756186, "east": -0.026024220534219822, "mute": -0.7191714010941643, "likely": 0.26165785191756186, "wantedly": 0.26165785191756186, "walo": 0.26165785191756186, "months": 2.18694871377014, "unique": 1.7657352486938356, "would": -1.8586056842825291, "weekly": -1.124636509202329, "v14": -0.43148932864238354, "o": 0.26165785191756186, "acc": -1.7307723127726442, "role": -0.7191714010941643, "stream": -0.43148932864238354, "cool": 2.458882429253781, "distribution": 2.0534173211456164, "nudes": 2.276560872459826, "gaming": -0.24916777184842864, "son": -0.24916777184842864, "gpu": 0.26165785191756186, "communicate": 1.360270140585671, "math": -0.5856400084696416, "completely": 0.26165785191756186, "spec": 0.26165785191756186, "much": -1.278787189029587, "online": -1.124636509202329, "chat": 0.3794408875739457, "trading": 2.6595531247159325, "told": 1.360270140585671, "deployment": -0.026024220534219822, "<emoji>": -0.6256453430833409, "keys": 1.360270140585671, "ipad": -0.43148932864238354, "gold": 0.26165785191756186, "expect": -0.026024220534219822, "restrictions": 0.26165785191756186, "aim": -0.43148932864238354, "super": -0.43148932864238354, "again": -1.3477800605165386, "point": -0.24916777184842864, "asf": 0.26165785191756186, "lga": 0.26165785191756186, "she": -1.7752240753434778, "comes": 0.26165785191756186, "ill": -0.24916777184842864, "cleans": -0.8369544367505473, "woo": 0.26165785191756186, "phishing": -0.026024220534219822, "uploaded": 0.26165785191756186, "help": -0.026024220534218934, "dump": 0.26165785191756186, "2024": 0.9548050324775073, "reach": -0.5856400084696416, "dude": 0.1075071720903038, "ata": -0.24916777184842864, "ah": 0.26165785191756186, "trade": 1.360270140585671, "violated": 0.26165785191756186, "steam": 2.7465645017055627, "anyway": 0.26165785191756186, "things": -0.7191714010941643, "24": 2.0534173211456164, "88": 0.26165785191756186, "youd": 0.26165785191756186, "tenz": 0.26165785191756186, "smarter": 0.26165785191756186, "that": -1.2716186995509746, "allow": 0.26165785191756186, "stocks": 0.26165785191756186, "sticker": 0.26165785191756186, "moderator": 1.0725880681338902, "time": -0.7191714010941643, "event": -0.6546328799565932, "hoti": -0.026024220534219822, "daily": 1.3602701405856719, "millionaire": -0.026024220534219822, "talk": -0.026024220534218934, "girl": -0.14380725619060186, "kind": -0.026024220534219822, "extra": 0.6671229600257265, "history": 0.26165785191756186, "bersama": 1.360270140585671, "onlyfans": 2.9697080530197715, "method": 0.26165785191756186, "nft": 2.7465645017055618, "who": 0.048083751619502735, "folder": 0.26165785191756186, "identity": 1.3602701405856719, "mine": 0.1075071720903038, "example": -0.026024220534219822, "v4": 0.9548050324775073, "smart": 0.26165785191756186, "hope": -0.7191714010941643, "accha": 0.26165785191756186, "ni": -1.6842522971377516, "go": -0.388929714223587, "decision": -0.026024220534219822, "livik": -0.43148932864238354, "email": 1.023797903964459, "yesterday": 1.360270140585671, "isne": 0.26165785191756186, "teaching": 0.26165785191756186, "omg": 0.9548050324775073, "teach": 0.9548050324775073, "moved": 0.26165785191756186, "properly": 0.26165785191756186, "button": 0.26165785191756186, "boruto": -0.24916777184842864, "saale": -0.026024220534219822, "bro": -0.6938535931098739, "tg": 2.9697080530197715, "leave": -0.24916777184842864, "proceed": 2.458882429253781, "region": 0.26165785191756186, "bit": -0.24916777184842864, "let": 0.6671229600257265, "scrims": -0.8369544367505473, "red": -0.43148932864238354, "gave": -0.14380725619060186, "bring": 0.26165785191756186, "40": 0.6671229600257256, "cringe": -0.026024220534219822, "gfx": 0.26165785191756186, "into": -0.43148932864238265, "activity": 1.360270140585671, "everyone": 1.0397982453108998, "up": -0.24916777184842864, "intp": 0.26165785191756186, "store": 0.44397940871151675, "sprint": -0.24916777184842864, "filled": 0.26165785191756186, "abt": 0.26165785191756186, "brief": -0.24916777184842864, "tencent": 0.26165785191756186, "loot": 0.26165785191756186, "must": 0.6671229600257256, "m": -1.0068534735459451, "lia": 0.26165785191756186, "lol": -1.4729432034705443, "ar": 0.26165785191756186, "patch": -0.026024220534219822, "asia": 0.26165785191756186, "hai": -0.6546328799565932, "running": 1.7657352486938356, "pass": 0.3794408875739457, "avaj": 0.26165785191756186, "600": 0.3794408875739457, "instead": 0.3794408875739457, "direct": 2.458882429253781, "doesn": -0.24916777184842864, "administration": -0.026024220534219822, "course": -0.5856400084696416, "spins": 0.26165785191756186, "valorant": 0.26165785191756186, "performance": -0.7191714010941643, "common": 0.26165785191756186, "age": 0.9548050324775073, "bugs": 0.26165785191756186, "called": -0.026024220534219822, "wasted": 1.360270140585671, "my": -0.745146887497425, "possible": -0.24916777184842864, "leaks": 3.1520296098137264, "kidding": 0.26165785191756186, "some": -0.511532036315919, "nvidia": -0.026024220534219822, "realise": 0.26165785191756186, "shit": -0.43148932864238354, "ik": -0.24916777184842864, "everything": -0.8369544367505473, "chicken": 0.26165785191756186, "theres": -0.7191714010941643, "without": 0.6671229600257265, "cabon": 0.26165785191756186, "tour": -0.026024220534219822, "so": -2.4898774611243866, "legit": 1.3602701405856719, "cook": 0.26165785191756186, "note": 1.5425916973796268, "meko": -0.026024220534219822, "myself": -0.43148932864238354, "studying": -0.43148932864238354, "scan": 2.613033109081039, "stop": -0.7191714010941643, "platform": 0.9548050324775073, "instantly": 2.7465645017055618, "confusing": 0.26165785191756186, "pretending": 1.360270140585671, "waise": 0.26165785191756186, "pubgm": -1.278787189029587, "dia": 0.26165785191756186, "little": -0.026024220534219822, "sign": 1.0725880681338902, "pfp": -0.5856400084696416, "saw": -1.0376251322126988, "wants": 0.8494445168196814, "follow": 0.26165785191756186, "ethereum": 2.458882429253781, "giving": 0.8006543526502492, "wgera": 0.26165785191756186, "even": -1.5841688385807684, "price": -0.43148932864238354, "died": -0.026024220534219822, "google": -0.5856400084696416, "kau": 1.360270140585671, "type": -0.43148932864238354, "2021": -0.43148932864238354, "ios": -0.026024220534219822, "sath": -0.026024220534219822, "1000": -0.026024220534219822, "credit": -0.43148932864238354, "guide": -0.026024220534219822, "permissions": 1.0725880681338902, "club": 1.360270140585671, "60": -0.026024220534219822, "during": 0.26165785191756186, "exit": 0.26165785191756186, "complicated": 2.458882429253781, "ping": -0.5856400084696416, "monday": -0.026024220534219822, "status": 0.6671229600257256, "token": 2.458882429253781, "deleted": 0.9548050324775073, "demo": 0.26165785191756186, "70k": 1.360270140585671, "shyd": 0.26165785191756186, "f": -0.026024220534219822, "saal": 0.26165785191756186, "could": -1.124636509202329, "means": -0.43148932864238354, "eat": -0.24916777184842864, "sending": 0.26165785191756186, "still": -1.7752240753434778, "redeem": 1.7657352486938356, "room": -0.026024220534218934, "complete": 1.360270140585671, "fck": 0.26165785191756186, "jitna": 0.26165785191756186, "confirmation": 0.26165785191756186, "or": 0.29242951058431554, "skin": -0.24916777184842864, "kaise": 0.26165785191756186, "senpai": 0.26165785191756186, "rules": -0.026024220534218934, "twitter": 0.26165785191756186, "fps": -0.5856400084696416, "violating": 1.360270140585671, "nobody": -0.026024220534219822, "notice": 0.1075071720903038, "ego": -0.026024220534219822, "portal": -0.43148932864238354, "model": -0.026024220534219822, "location": 0.26165785191756186, "vo": 0.26165785191756186, "straight": 0.26165785191756186, "above": 0.9548050324775073, "in": -0.4617292138321014, "tutorial": 1.7657352486938356, "totally": -1.0376251322126988, "bronze": 0.26165785191756186, "downloaded": 0.26165785191756186, "maine": -0.026024220534219822, "paimon": 1.360270140585671, "rma": 0.26165785191756186, "care": -0.942314952408374, "winners": -0.24916777184842864, "meetup": 0.26165785191756186, "birthday": 2.7465645017055618, "robot": 0.6671229600257256, "end": -0.8369544367505473, "high": -1.124636509202329, "chinese": -0.7191714010941643, "lb": -0.026024220534219822, "say": -0.43148932864238265, "yo": 1.1371265892714622, "agr": 0.26165785191756186, "offer": 2.9697080530197715, "heard": 0.26165785191756186, "and": -0.06224548396853713, "created": 0.44397940871151675, "info": 1.0725880681338902, "attention": -0.026024220534219822, "issue": -0.5856400084696416, "man": -1.4123185816541097, "able": -0.24916777184842864}}